gene,Dim_0,Dim_1,Dim_2,Dim_3,Dim_4,Dim_5,Dim_6,Dim_7,Dim_8,Dim_9,Dim_10,Dim_11,Dim_12,Dim_13,Dim_14,Dim_15,Dim_16,Dim_17,Dim_18,Dim_19,Dim_20,Dim_21,Dim_22,Dim_23,Dim_24,Dim_25,Dim_26,Dim_27,Dim_28,Dim_29,Dim_30,Dim_31,Dim_32,Dim_33,Dim_34,Dim_35,Dim_36,Dim_37,Dim_38,Dim_39,Dim_40,Dim_41,Dim_42,Dim_43,Dim_44,Dim_45,Dim_46,Dim_47,Dim_48,Dim_49,Dim_50,Dim_51,Dim_52,Dim_53,Dim_54,Dim_55,Dim_56,Dim_57,Dim_58,Dim_59,Dim_60,Dim_61,Dim_62,Dim_63,Dim_64,Dim_65,Dim_66,Dim_67,Dim_68,Dim_69,Dim_70,Dim_71,Dim_72,Dim_73,Dim_74,Dim_75,Dim_76,Dim_77,Dim_78,Dim_79,Dim_80,Dim_81,Dim_82,Dim_83,Dim_84,Dim_85,Dim_86,Dim_87,Dim_88,Dim_89,Dim_90,Dim_91,Dim_92,Dim_93,Dim_94,Dim_95,Dim_96,Dim_97,Dim_98,Dim_99,Dim_100,Dim_101,Dim_102,Dim_103,Dim_104,Dim_105,Dim_106,Dim_107,Dim_108,Dim_109,Dim_110,Dim_111,Dim_112,Dim_113,Dim_114,Dim_115,Dim_116,Dim_117,Dim_118,Dim_119,Dim_120,Dim_121,Dim_122,Dim_123,Dim_124,Dim_125,Dim_126,Dim_127,Dim_128,Dim_129,Dim_130,Dim_131,Dim_132,Dim_133,Dim_134,Dim_135,Dim_136,Dim_137,Dim_138,Dim_139,Dim_140,Dim_141,Dim_142,Dim_143,Dim_144,Dim_145,Dim_146,Dim_147,Dim_148,Dim_149,Dim_150,Dim_151,Dim_152,Dim_153,Dim_154,Dim_155,Dim_156,Dim_157,Dim_158,Dim_159,Dim_160,Dim_161,Dim_162,Dim_163,Dim_164,Dim_165,Dim_166,Dim_167,Dim_168,Dim_169,Dim_170,Dim_171,Dim_172,Dim_173,Dim_174,Dim_175,Dim_176,Dim_177,Dim_178,Dim_179,Dim_180,Dim_181,Dim_182,Dim_183,Dim_184,Dim_185,Dim_186,Dim_187,Dim_188,Dim_189,Dim_190,Dim_191,Dim_192,Dim_193,Dim_194,Dim_195,Dim_196,Dim_197,Dim_198,Dim_199,Dim_200,Dim_201,Dim_202,Dim_203,Dim_204,Dim_205,Dim_206,Dim_207,Dim_208,Dim_209,Dim_210,Dim_211,Dim_212,Dim_213,Dim_214,Dim_215,Dim_216,Dim_217,Dim_218,Dim_219,Dim_220,Dim_221,Dim_222,Dim_223,Dim_224,Dim_225,Dim_226,Dim_227,Dim_228,Dim_229,Dim_230,Dim_231,Dim_232,Dim_233,Dim_234,Dim_235,Dim_236,Dim_237,Dim_238,Dim_239,Dim_240,Dim_241,Dim_242,Dim_243,Dim_244,Dim_245,Dim_246,Dim_247,Dim_248,Dim_249,Dim_250,Dim_251,Dim_252,Dim_253,Dim_254,Dim_255,Dim_256,Dim_257,Dim_258,Dim_259,Dim_260,Dim_261,Dim_262,Dim_263,Dim_264,Dim_265,Dim_266,Dim_267,Dim_268,Dim_269,Dim_270,Dim_271,Dim_272,Dim_273,Dim_274,Dim_275,Dim_276,Dim_277,Dim_278,Dim_279,Dim_280,Dim_281,Dim_282,Dim_283,Dim_284,Dim_285,Dim_286,Dim_287,Dim_288,Dim_289,Dim_290,Dim_291,Dim_292,Dim_293,Dim_294,Dim_295,Dim_296,Dim_297,Dim_298,Dim_299,Dim_300,Dim_301,Dim_302,Dim_303,Dim_304,Dim_305,Dim_306,Dim_307,Dim_308,Dim_309,Dim_310,Dim_311,Dim_312,Dim_313,Dim_314,Dim_315,Dim_316,Dim_317,Dim_318,Dim_319,Dim_320,Dim_321,Dim_322,Dim_323,Dim_324,Dim_325,Dim_326,Dim_327,Dim_328,Dim_329,Dim_330,Dim_331,Dim_332,Dim_333,Dim_334,Dim_335,Dim_336,Dim_337,Dim_338,Dim_339,Dim_340,Dim_341,Dim_342,Dim_343,Dim_344,Dim_345,Dim_346,Dim_347,Dim_348,Dim_349,Dim_350,Dim_351,Dim_352,Dim_353,Dim_354,Dim_355,Dim_356,Dim_357,Dim_358,Dim_359,Dim_360,Dim_361,Dim_362,Dim_363,Dim_364,Dim_365,Dim_366,Dim_367,Dim_368,Dim_369,Dim_370,Dim_371,Dim_372,Dim_373,Dim_374,Dim_375,Dim_376,Dim_377,Dim_378,Dim_379,Dim_380,Dim_381,Dim_382,Dim_383
NGB,-0.12480640411376953,-0.0638432651758194,-0.07040610164403915,0.06608721613883972,-0.04108484834432602,0.01650787889957428,0.024388113990426064,0.0013599063968285918,0.03347744420170784,0.007309705018997192,-0.029811343178153038,0.0049272277392446995,-0.07437422126531601,0.03478093445301056,-0.04603196308016777,0.07845752686262131,-0.09982237964868546,0.06363008916378021,-0.07963189482688904,0.0474800281226635,-0.05815287306904793,0.023020746186375618,-0.02627323754131794,-0.034055013209581375,-0.05409768968820572,0.020493896678090096,0.05665469542145729,-0.01205395720899105,0.018169134855270386,0.032000795006752014,0.05961389094591141,-0.0502777025103569,-0.09160857647657394,0.07968984544277191,0.00239422800950706,0.08182065933942795,-0.08958935737609863,-0.13706043362617493,-0.0629514530301094,-0.08077544718980789,0.08143210411071777,0.031191926449537277,0.016390036791563034,0.07302121073007584,-0.022284701466560364,-0.014499439857900143,-0.021282073110342026,-0.00928223505616188,-0.009337875992059708,-0.04511016979813576,0.03393860161304474,-0.08655881881713867,-0.05393962189555168,0.08904911577701569,0.020547905936837196,0.05076146870851517,-0.018566817045211792,0.003276196541264653,0.009829651564359665,0.01982945390045643,-0.06603158265352249,0.024958770722150803,0.06352655589580536,-0.067307248711586,0.013693329878151417,-0.01996420882642269,0.017297040671110153,-0.023250961676239967,-0.10034839808940887,-0.05717279389500618,-0.02296234294772148,0.008548924699425697,-0.035532161593437195,-0.01838124543428421,-0.07179916650056839,0.039412982761859894,-0.0723295733332634,0.02444390580058098,0.05829441547393799,-0.08245012164115906,0.06132199615240097,0.0409756600856781,0.15579530596733093,0.13395093381404877,0.06567289680242538,-0.05911841616034508,-0.008658263832330704,0.07148952782154083,-0.011294151656329632,0.028831129893660545,0.012771922163665295,-0.018912622705101967,0.006448385771363974,-0.037923578172922134,-0.046790916472673416,0.002035014797002077,0.040837135165929794,0.03878093510866165,-0.03757810965180397,-0.0033051148056983948,-0.04612424969673157,0.049726441502571106,0.01929302327334881,-0.04841499403119087,0.019963612779974937,0.05987222492694855,0.06794307380914688,0.051081132143735886,0.025917313992977142,0.007803028449416161,-0.046730540692806244,0.10611710697412491,0.02036169543862343,0.04670582711696625,-0.011820845305919647,0.019966136664152145,-0.0008240767638199031,0.023879598826169968,0.041680533438920975,0.0023256796412169933,-0.0036101017612963915,0.0014573700027540326,0.08280128985643387,-0.05372648686170578,-0.027775024995207787,0.014939574524760246,-0.0604243278503418,6.282336253105619e-33,0.049889277666807175,-0.07176671922206879,0.06722751259803772,0.01485496200621128,0.005217953585088253,-0.0463913232088089,-0.09589315950870514,-0.031368009746074677,-0.013633053749799728,0.02290882170200348,-0.08663740009069443,-0.021026577800512314,-0.003717743791639805,0.010795768350362778,-0.01996426098048687,0.008959023281931877,-0.04810255765914917,-0.08137806504964828,0.07437603920698166,-0.08350219577550888,0.02309105172753334,-0.05019926279783249,-0.003054499626159668,-0.039266690611839294,-0.004443541169166565,0.0032039282377809286,-0.0846082866191864,-0.020802844315767288,0.028572149574756622,0.0031735971570014954,-0.012385996989905834,-0.09179983288049698,-0.10765492171049118,-0.0313260592520237,-0.02110505849123001,0.014040340669453144,-0.011517252773046494,-0.010498915798962116,-0.04629403352737427,0.031105810776352882,0.04945705085992813,-0.07773467153310776,-0.07051640003919601,-0.07244501262903214,0.06396414339542389,0.027935978025197983,0.11545268446207047,0.02100861631333828,0.02030230686068535,0.038225576281547546,0.03269607573747635,-0.12088510394096375,-0.00552732776850462,0.06966201961040497,-0.06063128635287285,-0.00564219057559967,0.035861335694789886,-0.02862142212688923,0.05305308848619461,0.06503184884786606,0.04121062532067299,0.02258395031094551,0.021952571347355843,-0.0023416858166456223,0.07803597301244736,-0.015133574604988098,-0.05663876608014107,-0.04514314606785774,-0.05920803174376488,0.021562008187174797,0.05004521459341049,-0.047989461570978165,0.08850692957639694,-0.008243707939982414,-0.02435462549328804,0.0018798784585669637,0.023372629657387733,0.02961866557598114,-0.019709749147295952,-0.00683955242857337,0.047821495682001114,0.04516829922795296,0.029707618057727814,0.02777843177318573,-0.05167203024029732,-0.0274426881223917,0.02435995452105999,-0.04061884060502052,-0.08596161752939224,-0.015641087666153908,0.02624504454433918,0.005400143098086119,-0.03323176130652428,-0.12783150374889374,0.047434933483600616,-7.664942422967224e-33,0.022744636982679367,-0.07215680181980133,0.0540446862578392,-0.07507447153329849,0.03508884832262993,0.0226664487272501,0.06406891345977783,-0.042682211846113205,0.03795676678419113,-0.07232712209224701,0.13431772589683533,0.04728810116648674,-0.0012947184732183814,0.03114558570086956,0.09139227122068405,-0.06724086403846741,-0.11561223119497299,0.07424277067184448,0.045020874589681625,-0.09400374442338943,0.03581831231713295,0.022048939019441605,0.006054460071027279,0.0378473661839962,0.010453052818775177,-0.008229589089751244,-0.004224610514938831,0.04165293648838997,-0.012477089650928974,0.09870680421590805,-0.012791543267667294,0.07754657417535782,-0.03682045638561249,-0.017557712271809578,0.037261977791786194,-0.05194355547428131,-0.035620857030153275,-0.07103482633829117,-0.05752384290099144,-0.06962161511182785,0.004926351830363274,0.0619036890566349,0.06628808379173279,0.006235942244529724,0.05906182900071144,0.058245137333869934,-0.07418611645698547,-0.08169976621866226,0.0012874417006969452,0.03036586381494999,0.007958903908729553,0.009006360545754433,-0.1283126324415207,-0.012870045378804207,0.003527612192556262,0.07585406303405762,0.003870561486110091,-0.09002912789583206,-0.020752962678670883,0.003379447152838111,-0.02872573770582676,-0.012290884740650654,0.04392576590180397,-0.024338988587260246,-0.03640884533524513,0.05087297409772873,0.057552266865968704,0.06817001104354858,0.06061650812625885,-0.03957061842083931,-0.017505478113889694,0.0024131860118359327,0.054207537323236465,0.0587320476770401,0.028509382158517838,0.0005008592270314693,-0.0057502384297549725,0.061723459511995316,0.019149666652083397,-0.07199282944202423,-0.012697643600404263,0.03588394075632095,-0.10137075185775757,-0.013901163823902607,0.000509570469148457,-0.06042087450623512,-0.022411387413740158,0.06002037599682808,0.0027877320535480976,-0.026973873376846313,-0.04288074001669884,-0.02352355420589447,-0.02324734441936016,0.11550699919462204,-0.03203938901424408,-4.4094338846889514e-08,-0.045762162655591965,-0.01705099083483219,0.058107390999794006,-0.016942843794822693,0.0401826910674572,0.03561479225754738,0.05380355939269066,-0.006741861347109079,-0.0484723299741745,0.0008308858959935606,0.03029371239244938,0.029192732647061348,-0.036518584936857224,0.011877081356942654,-0.028105244040489197,0.10198608040809631,-0.05257655680179596,-0.07524018734693527,-0.0018949673976749182,-0.011024735867977142,0.0391056202352047,0.021463384851813316,-0.004226853139698505,0.04071192815899849,0.03970147296786308,-0.10305493324995041,-0.050131864845752716,0.06382743269205093,0.005693977233022451,-0.0724029392004013,0.09875338524580002,0.047218769788742065,0.013794316910207272,0.018915779888629913,-0.007014265283942223,-0.0014473430346697569,0.008663873188197613,-0.006303911563009024,0.014718683436512947,-0.010871217586100101,-0.05965086445212364,-0.030350012704730034,0.010185153223574162,-0.02521291747689247,0.06625980138778687,0.07333637028932571,0.01638435758650303,0.04884739965200424,-0.00425313413143158,0.045805688947439194,-0.01612558215856552,0.061454545706510544,-0.04058775678277016,0.03119974583387375,-0.05669262632727623,0.012522953562438488,-0.01678389310836792,0.02085883356630802,0.020770393311977386,-0.12131218612194061,-0.041440173983573914,-2.42472997342702e-05,0.017435625195503235,0.020906362682580948
CROCC2,-0.0846298411488533,-0.07341346144676208,-0.057001665234565735,-0.01721666380763054,0.04089847207069397,-0.01973719708621502,0.0034179373178631067,0.023136241361498833,0.006278623826801777,-0.011573190800845623,-0.05935366824269295,-0.011326144449412823,-0.055280257016420364,0.021309830248355865,-0.0451451800763607,0.08950319141149521,-0.08809241652488708,0.04235539212822914,-0.0982421487569809,-0.04861997812986374,0.0003791725030168891,-0.04838215187191963,0.029489897191524506,0.024421365931630135,-0.0007150649907998741,-0.04565452039241791,0.10265353322029114,0.08649279922246933,-0.021054426208138466,-0.032271385192871094,0.06329971551895142,-0.017413867637515068,-0.007805255241692066,-0.009997968561947346,0.017499642446637154,0.016241656616330147,0.004117635544389486,-0.058258283883333206,-0.10145469009876251,-0.07417541742324829,0.029375888407230377,-0.036197729408741,0.01643025130033493,0.032537538558244705,0.02668898180127144,-0.06084306165575981,-0.04996116831898689,0.005144328344613314,0.04823854938149452,0.10406188666820526,-0.015406398102641106,0.011910834349691868,-0.04370433837175369,0.10820457339286804,0.06617148220539093,0.045009300112724304,-0.021165544167160988,0.07346689701080322,0.034734632819890976,0.0035212007351219654,-0.03730493411421776,-0.06691061705350876,0.05974951013922691,0.024960139766335487,-0.004664515610784292,0.011408797465264797,-0.05817914754152298,-0.018077420070767403,-0.08368028700351715,-0.018500080332159996,-0.05229990556836128,-0.030911201611161232,-0.014589201658964157,0.04436312988400459,0.012530103325843811,0.09446600824594498,0.0267102662473917,0.055604033172130585,0.026701461523771286,0.022789008915424347,-0.02315722405910492,0.0377533920109272,0.12884636223316193,0.026373567059636116,0.007777176797389984,0.035304535180330276,-0.03620057925581932,0.00487653911113739,-0.006570256315171719,0.1388053297996521,-0.007905824109911919,-0.0036029957700520754,0.025970621034502983,0.06845798343420029,-0.029830332845449448,0.04233109578490257,0.021287422627210617,-0.044403232634067535,-0.006277017295360565,-0.041822437196969986,-0.06548391282558441,0.0819263756275177,0.01563275046646595,-0.06378395855426788,0.039574626833200455,0.0016095639439299703,-0.0038527920842170715,0.04948946461081505,-0.06294439733028412,-0.0028576436452567577,0.04215312376618385,-0.013190745376050472,-0.024814827367663383,0.015227455645799637,0.04932495206594467,0.03304597735404968,-0.007778474595397711,-0.005792439915239811,0.09539762139320374,-0.03735918551683426,-0.06602279841899872,0.06682340800762177,-0.0598764568567276,-0.020297598093748093,-0.05852779746055603,-0.009875989519059658,-0.10950832068920135,5.5959261634101144e-33,0.033677611500024796,-0.026608984917402267,-0.030689239501953125,0.09325779974460602,-0.1198812946677208,-0.06328418850898743,-0.062391843646764755,-0.03609311953186989,-0.05950796231627464,-0.0935279130935669,-0.002680614124983549,-0.04983588680624962,0.06066904217004776,-0.006943544838577509,-0.018222829326987267,-0.04499717429280281,0.006565514951944351,-0.05009490251541138,-0.0037370268255472183,0.0024388025049120188,-0.004868761636316776,-0.04967411607503891,0.0011980870040133595,-0.14363153278827667,0.0485994927585125,0.041583288460969925,-0.027405772358179092,0.06433582305908203,0.06187409162521362,0.023179208859801292,-0.09825748950242996,-0.015281330794095993,-0.009806946851313114,0.013767180033028126,-0.0009824614971876144,0.04273182898759842,0.017789248377084732,-0.06364523619413376,-0.01263895258307457,0.11002595722675323,0.018130220472812653,-0.043523963540792465,-0.12347676604986191,-0.04331781715154648,0.04771370813250542,-0.1288558542728424,-0.01581270433962345,0.0041821058839559555,-0.013783957809209824,-0.0007953914464451373,0.0330924428999424,-0.003372200997546315,0.0579364039003849,0.04095742851495743,-0.014474337920546532,-0.05386672168970108,-0.029847288504242897,-0.01258903555572033,0.04846949502825737,-0.0267074853181839,-0.07089846581220627,-0.03940025717020035,-0.032644808292388916,0.1478317677974701,0.10180424898862839,0.0007914157467894256,-0.08261310309171677,0.02036372758448124,-0.07390210032463074,0.0513404943048954,0.027312153950333595,-0.02537587843835354,0.12488821148872375,-0.012915251776576042,-0.004996195435523987,-0.023728717118501663,-0.002043528947979212,0.04614933580160141,-0.03446835279464722,0.1710883229970932,-0.005851143039762974,-0.012879209592938423,-0.08324648439884186,0.04098840802907944,-0.030425256118178368,-0.10005752742290497,0.0425434336066246,-0.02450268715620041,-0.009252933785319328,-0.047650404274463654,0.06497550010681152,0.0064461976289749146,0.013608287088572979,0.0312967449426651,0.0010324432514607906,-7.535042950361669e-33,0.05616007372736931,0.01749645546078682,0.13215835392475128,-0.053560301661491394,-0.06199881434440613,0.01177299115806818,0.05174698308110237,-0.09677740186452866,0.011288708075881004,-0.018964868038892746,0.03663695231080055,0.021985305473208427,0.0016494147712364793,-0.06692840158939362,-0.01231619156897068,-0.06798414140939713,-0.03158489614725113,0.030428588390350342,0.012284398078918457,0.017307152971625328,0.06822538375854492,0.06019739806652069,-0.05175205320119858,0.046728603541851044,-0.11457807570695877,-0.0036439800169318914,0.024953989312052727,0.03068905882537365,-0.0512031614780426,0.05357461795210838,-0.022537149488925934,0.05088229477405548,-0.03506310284137726,-0.01937011256814003,0.005034807603806257,0.025082668289542198,-0.032588277012109756,-0.02655702456831932,0.0337066650390625,-0.038669563829898834,0.0025794790126383305,-0.04667533189058304,-0.0543816052377224,0.02903858944773674,-0.011466496624052525,0.09308932721614838,0.03684243932366371,0.08703379333019257,0.0077351457439363,0.04654848575592041,-0.04776221886277199,0.07042825222015381,-0.09238099306821823,0.0375920832157135,-0.0165991373360157,-0.020405853167176247,0.026325592771172523,-0.09240356832742691,0.027626482769846916,0.05485764890909195,-0.05638048052787781,0.0299229733645916,0.02555125765502453,0.061871759593486786,0.04608789458870888,0.031215563416481018,0.0569612942636013,-0.01865401491522789,0.010021068155765533,0.004541311413049698,0.08974984288215637,0.03264245018362999,0.0041085416451096535,-0.026142165064811707,0.025592651218175888,0.00928172655403614,-0.03952396661043167,0.0681256353855133,-0.03647434338927269,0.0472990982234478,0.034663330763578415,-0.042134374380111694,0.01038086786866188,-0.032298196107149124,0.1036384180188179,-0.005063897464424372,-0.07285570353269577,0.021293312311172485,-0.03414330258965492,-0.06916878372430801,0.0270188320428133,0.010442535392940044,-0.047905709594488144,0.06322010606527328,-0.0002742137585300952,-4.329092462285189e-08,-0.06176675483584404,-0.05633533000946045,-0.00019899391918443143,-0.056830208748579025,-0.035353194922208786,0.009128382429480553,-0.06975483894348145,0.018903518095612526,0.02449268288910389,0.02870837226510048,-0.00893219280987978,0.02112031914293766,-0.05860151723027229,-0.02047794498503208,-0.014514786191284657,0.04558790102601051,0.027912430465221405,-0.0042770919390022755,0.03233392536640167,0.04946069419384003,-0.04370483011007309,-0.0805850550532341,0.0668548196554184,-0.01304029580205679,-0.010738718323409557,-0.07551214098930359,-0.013798413798213005,0.11097759753465652,0.026347428560256958,-0.05738914757966995,0.007544452790170908,0.026076944544911385,0.02622396871447563,-0.0073773679323494434,-0.05164482817053795,0.004868784919381142,0.058067236095666885,-0.036211177706718445,-0.02132091112434864,0.07000216096639633,0.0681740790605545,0.0013110951986163855,0.00792557094246149,-0.06239160895347595,-0.056481972336769104,0.03134589642286301,0.03994365036487579,0.03519819304347038,-0.0255084540694952,-0.08391149342060089,-0.051218632608652115,-0.012687494978308678,0.014984022825956345,-0.04560960829257965,0.008537785150110722,0.09022437781095505,-0.031063508242368698,0.06670918315649033,0.1349242478609085,-0.022999277338385582,-0.012336029671132565,0.010413107462227345,-0.028102563694119453,-0.05920214205980301
SIK3,-0.059084706008434296,-0.06228383257985115,-0.09075552225112915,-0.010920814238488674,0.098442941904068,-0.04624813422560692,-0.014477506279945374,-0.04415349289774895,0.08238338679075241,-0.031331758946180344,-0.0566369965672493,-0.00771429855376482,-0.0006081488099880517,-0.024542294442653656,-0.006164595019072294,0.05012685805559158,-0.050176382064819336,0.1229022890329361,-0.011278694495558739,0.015772610902786255,0.0658927634358406,-0.02076667919754982,0.0731138288974762,0.050181299448013306,-0.005768891423940659,-0.058772698044776917,0.12842725217342377,0.013576614670455456,-0.08377065509557724,0.03483748435974121,-0.04856303334236145,-0.025620605796575546,0.01695462316274643,-0.0359516367316246,0.04371193051338196,0.08952955156564713,-0.09154660999774933,-0.03545817360281944,-0.1415339708328247,-0.006042533554136753,0.08256392925977707,-0.10504899173974991,0.039998289197683334,0.04993968456983566,0.054718147963285446,-0.02810884453356266,-0.035656701773405075,-0.03704017773270607,0.026174835860729218,0.05003770440816879,-0.003217669203877449,-0.026081116870045662,-0.045480869710445404,0.014185931533575058,0.005939811002463102,-0.0193348228931427,-0.09409483522176743,0.045311104506254196,-0.03273645415902138,0.002632406074553728,-0.024329980835318565,-0.028206290677189827,0.024982115253806114,-0.03540406376123428,0.048764027655124664,0.03007887676358223,-0.010262013413012028,-0.039118967950344086,-0.11045531183481216,0.0034470411483198404,-0.06528978794813156,0.0018861198332160711,0.0299361702054739,0.06520101428031921,-0.02290940284729004,0.054508719593286514,0.0752670168876648,0.055193543434143066,0.016255123540759087,-0.04676549881696701,0.00668128440156579,0.07206647843122482,0.07200787216424942,0.0720725879073143,-0.04232421889901161,-0.006744443438947201,-0.050399139523506165,0.0697694793343544,-0.0575748085975647,0.05042468383908272,-0.0361664816737175,0.03264280781149864,-0.016626331955194473,0.07176713645458221,0.030268002301454544,0.014949771575629711,-0.06153489649295807,-0.008797132410109043,-0.028319697827100754,-0.021556826308369637,-0.04062218591570854,0.1531323343515396,0.02717413194477558,-0.036300819367170334,0.07201781868934631,0.037789881229400635,0.0006278895307332277,0.012528248131275177,-0.07279252260923386,0.07705384492874146,0.03017035871744156,-0.04405609890818596,0.0258377343416214,0.009034211747348309,0.09301559627056122,0.09136724472045898,0.023409657180309296,-0.029856989160180092,0.020117707550525665,0.037724569439888,-0.02225220389664173,-0.05292346328496933,-0.007239099126309156,-0.07891614735126495,0.015074264258146286,0.018988490104675293,-0.017863860353827477,3.141114861965038e-33,0.023267479613423347,-0.02809116058051586,0.014180806465446949,0.06051104888319969,-0.03211979940533638,-0.06198936700820923,0.035832446068525314,-0.06075841188430786,-0.06221562251448631,-0.05761975049972534,0.004627453163266182,-0.02843710035085678,0.01778266206383705,-0.045138467103242874,-0.005278704687952995,0.007711339276283979,0.011273601092398167,-0.036711685359478,0.04084980487823486,-0.018758131191134453,0.05752388387918472,-0.034230489283800125,0.0051221465691924095,-0.004293594043701887,-0.03288605064153671,-0.01046023704111576,-0.027056943625211716,0.038223061710596085,0.011033781804144382,0.010233918204903603,-0.027280615642666817,-0.036994967609643936,0.0166317131370306,-0.017295027151703835,-0.008808597922325134,-0.014248322695493698,-0.03385103866457939,-0.005854273680597544,-0.003924173302948475,0.11372226476669312,-0.0037377835251390934,-0.053442563861608505,-0.008554949425160885,-0.017568018287420273,-0.009549411945044994,0.004711629822850227,-0.011054029688239098,0.0757366344332695,0.017849426716566086,-0.04103865101933479,0.03588388115167618,-0.0076619526371359825,-0.02518370933830738,0.08390823006629944,-0.02100236900150776,-0.0252767913043499,-0.07471321523189545,-0.011810854077339172,-0.06611335277557373,-0.05494563281536102,-0.04759660363197327,-0.07834440469741821,0.0008229203522205353,0.15571436285972595,0.0326768197119236,0.012458717450499535,-0.09939618408679962,-0.07091615349054337,-0.02004319615662098,-0.010134435258805752,0.0520726814866066,-0.015892455354332924,0.070787712931633,0.021618254482746124,-0.1275319904088974,0.04366540536284447,0.05070000886917114,0.045439351350069046,-0.07997000217437744,0.05682534724473953,0.06647355854511261,-0.03392228111624718,-0.07060687988996506,0.059611670672893524,-0.09374450147151947,-0.00808053556829691,0.028477918356657028,-0.021532738581299782,0.015172906219959259,-0.08734012395143509,0.018876567482948303,-0.01574636623263359,0.016608459874987602,-0.00025091355200856924,-0.10507448017597198,-3.66666626393219e-33,0.09960399568080902,0.027246082201600075,0.05070873722434044,-0.06174863502383232,0.013579354621469975,0.0684032067656517,0.05452528968453407,-0.08217839896678925,-0.029257308691740036,-0.01827511191368103,0.027718553319573402,-0.041554246097803116,-0.02544744685292244,-0.07127155363559723,0.03546547517180443,-0.014063524082303047,-0.03535889834165573,0.03818931058049202,-0.06876365095376968,-0.040048748254776,0.028415678068995476,0.0945039913058281,-0.07413624227046967,0.06956607848405838,-0.01637985371053219,0.056386154145002365,-0.05095572769641876,0.05663645267486572,-0.13047927618026733,0.08697806298732758,0.04235915467143059,0.03763662278652191,-0.00991051271557808,-0.05527089163661003,0.04708664491772652,-0.0245694350451231,0.007306039333343506,-0.10003296285867691,-0.002321006264537573,-0.008043789304792881,0.008541776798665524,-0.009030300192534924,0.05732538923621178,-0.038633398711681366,0.01964457705616951,0.033756840974092484,0.07179142534732819,0.017892275005578995,0.048847198486328125,-0.04118923842906952,0.010921785607933998,-0.025611307471990585,-0.02242300845682621,0.0597357377409935,-0.012888000346720219,0.08552072942256927,0.02256595529615879,0.0291577335447073,0.03821258991956711,0.008269857615232468,-0.07415040582418442,-0.056665271520614624,0.05243470147252083,-0.023596063256263733,0.08867959678173065,-0.005791221745312214,0.052286598831415176,-0.04484719783067703,0.06848623603582382,0.07510039210319519,-0.0514274463057518,0.03652003034949303,0.02517884038388729,0.07493007183074951,-0.0008598471176810563,0.041375428438186646,0.008055771701037884,0.07625671476125717,-0.040162764489650726,-0.020549969747662544,-0.05533015727996826,-0.03545690327882767,-0.005602081771939993,0.0019948650151491165,-0.026564449071884155,-0.035004038363695145,-0.03356737643480301,0.038975510746240616,-0.010200598277151585,-0.03802603855729103,-0.009335801005363464,-0.07502143085002899,-0.09420528262853622,0.08770093321800232,-0.019028227776288986,-4.084664695369611e-08,0.05332496762275696,-0.010200627148151398,-0.08273796737194061,0.0011520229745656252,-0.05120701715350151,0.00207650032825768,0.055277105420827866,0.017429176717996597,0.019928915426135063,0.009779565967619419,0.019870536401867867,0.014795977622270584,0.06184500455856323,-0.06707301735877991,0.013083681464195251,0.021360434591770172,0.07096615433692932,0.04752451553940773,-0.027144774794578552,-0.06729301810264587,0.015235403552651405,-0.06964095681905746,0.01943538524210453,0.011587600223720074,0.04558949172496796,-0.046142276376485825,-0.10507701337337494,0.11035028845071793,0.06266266107559204,-0.0037383532617241144,0.020969288423657417,-0.03449172154068947,0.10565488785505295,-0.015076261013746262,0.0004895585589110851,0.08994734287261963,0.03643990680575371,-0.06193996220827103,0.016563862562179565,0.10256377607584,-0.040851131081581116,-0.0012761084362864494,-0.025062253698706627,0.0023179634008556604,-0.05374275892972946,-0.0455469936132431,0.01699248142540455,0.032509997487068176,-0.017246438190340996,-0.05112505331635475,-0.1154506504535675,0.04057367146015167,-0.04696381837129593,0.02464209496974945,-0.03537717089056969,0.043684545904397964,-0.08651761710643768,0.04453093186020851,0.11580624431371689,-0.017987465485930443,0.02308318018913269,-0.018497172743082047,-0.03654725104570389,0.0031790626235306263
